FANN_FLO_2.1
num_layers=3
learning_rate=0.700000
connection_rate=1.000000
network_type=0
learning_momentum=0.000000
training_algorithm=2
train_error_function=1
train_stop_function=0
cascade_output_change_fraction=0.010000
quickprop_decay=-0.000100
quickprop_mu=1.750000
rprop_increase_factor=1.200000
rprop_decrease_factor=0.500000
rprop_delta_min=0.000000
rprop_delta_max=50.000000
rprop_delta_zero=0.100000
cascade_output_stagnation_epochs=12
cascade_candidate_change_fraction=0.010000
cascade_candidate_stagnation_epochs=12
cascade_max_out_epochs=150
cascade_min_out_epochs=50
cascade_max_cand_epochs=150
cascade_min_cand_epochs=50
cascade_num_candidate_groups=2
bit_fail_limit=3.49999994039535520000e-001
cascade_candidate_limit=1.00000000000000000000e+003
cascade_weight_multiplier=4.00000005960464480000e-001
cascade_activation_functions_count=10
cascade_activation_functions=3 5 7 8 10 11 14 15 16 17 
cascade_activation_steepnesses_count=4
cascade_activation_steepnesses=2.50000000000000000000e-001 5.00000000000000000000e-001 7.50000000000000000000e-001 1.00000000000000000000e+000 
layer_sizes=4 8 2 
scale_included=0
neurons (num_inputs, activation_function, activation_steepness)=(0, 0, 0.00000000000000000000e+000) (0, 0, 0.00000000000000000000e+000) (0, 0, 0.00000000000000000000e+000) (0, 0, 0.00000000000000000000e+000) (4, 5, 5.00000000000000000000e-001) (4, 5, 5.00000000000000000000e-001) (4, 5, 5.00000000000000000000e-001) (4, 5, 5.00000000000000000000e-001) (4, 5, 5.00000000000000000000e-001) (4, 5, 5.00000000000000000000e-001) (4, 5, 5.00000000000000000000e-001) (0, 5, 0.00000000000000000000e+000) (8, 5, 5.00000000000000000000e-001) (0, 5, 0.00000000000000000000e+000) 
connections (connected_to_neuron, weight)=(0, 2.84316039085388180000e+000) (1, -4.95741009712219240000e-001) (2, -4.95203912258148190000e-001) (3, 4.17897462844848630000e-001) (0, 2.88585448265075680000e+000) (1, -4.71149921417236330000e-001) (2, -4.48518097400665280000e-001) (3, 3.80885750055313110000e-001) (0, -7.19893646240234370000e+000) (1, 1.40948927402496340000e+000) (2, 1.38070511817932130000e+000) (3, -8.17316591739654540000e-001) (0, 2.98800659179687500000e+000) (1, -2.86991000175476070000e-001) (2, -3.32010567188262940000e-001) (3, 5.62102794647216800000e-001) (0, 7.17923355102539060000e+000) (1, -9.80783641338348390000e-001) (2, -8.54306519031524660000e-001) (3, 9.60825085639953610000e-001) (0, 2.81822752952575680000e+000) (1, -5.14936566352844240000e-001) (2, -4.50556695461273190000e-001) (3, 4.07515347003936770000e-001) (0, 7.00569820404052730000e+000) (1, -8.04392039775848390000e-001) (2, -8.62558543682098390000e-001) (3, 1.38107085227966310000e+000) (4, 2.20549434423446660000e-001) (5, 2.08456337451934810000e-001) (6, -8.99362444877624510000e-001) (7, 4.48577284812927250000e-001) (8, 1.36604189872741700000e+000) (9, 2.24380403757095340000e-001) (10, 1.33610415458679200000e+000) (11, 1.51170110702514650000e+000) 
