FANN_FLO_2.1
num_layers=3
learning_rate=0.700000
connection_rate=1.000000
network_type=0
learning_momentum=0.000000
training_algorithm=2
train_error_function=1
train_stop_function=0
cascade_output_change_fraction=0.010000
quickprop_decay=-0.000100
quickprop_mu=1.750000
rprop_increase_factor=1.200000
rprop_decrease_factor=0.500000
rprop_delta_min=0.000000
rprop_delta_max=50.000000
rprop_delta_zero=0.100000
cascade_output_stagnation_epochs=12
cascade_candidate_change_fraction=0.010000
cascade_candidate_stagnation_epochs=12
cascade_max_out_epochs=150
cascade_min_out_epochs=50
cascade_max_cand_epochs=150
cascade_min_cand_epochs=50
cascade_num_candidate_groups=2
bit_fail_limit=3.49999994039535520000e-001
cascade_candidate_limit=1.00000000000000000000e+003
cascade_weight_multiplier=4.00000005960464480000e-001
cascade_activation_functions_count=10
cascade_activation_functions=3 5 7 8 10 11 14 15 16 17 
cascade_activation_steepnesses_count=4
cascade_activation_steepnesses=2.50000000000000000000e-001 5.00000000000000000000e-001 7.50000000000000000000e-001 1.00000000000000000000e+000 
layer_sizes=4 8 2 
scale_included=0
neurons (num_inputs, activation_function, activation_steepness)=(0, 0, 0.00000000000000000000e+000) (0, 0, 0.00000000000000000000e+000) (0, 0, 0.00000000000000000000e+000) (0, 0, 0.00000000000000000000e+000) (4, 5, 5.00000000000000000000e-001) (4, 5, 5.00000000000000000000e-001) (4, 5, 5.00000000000000000000e-001) (4, 5, 5.00000000000000000000e-001) (4, 5, 5.00000000000000000000e-001) (4, 5, 5.00000000000000000000e-001) (4, 5, 5.00000000000000000000e-001) (0, 5, 0.00000000000000000000e+000) (8, 5, 5.00000000000000000000e-001) (0, 5, 0.00000000000000000000e+000) 
connections (connected_to_neuron, weight)=(0, 4.27463006973266600000e+000) (1, -3.17165702581405640000e-001) (2, 2.49932959675788880000e-001) (3, 7.59235173463821410000e-002) (0, -1.04932556152343750000e+001) (1, 1.95658540725708010000e+000) (2, -5.76833069324493410000e-001) (3, 2.09328308701515200000e-001) (0, -1.60262346267700200000e+000) (1, 6.45499825477600100000e-001) (2, 2.07615301012992860000e-001) (3, 3.41148525476455690000e-001) (0, 1.05176820755004880000e+001) (1, -1.61570534110069270000e-001) (2, 6.70755028724670410000e-001) (3, 3.17717641592025760000e-001) (0, 4.34942626953125000000e+000) (1, -4.57020550966262820000e-002) (2, 5.20798504352569580000e-001) (3, 2.49071702361106870000e-001) (0, -1.05746459960937500000e+001) (1, 1.86065053939819340000e+000) (2, -5.10902941226959230000e-001) (3, 2.03719154000282290000e-001) (0, 1.04761104583740230000e+001) (1, -1.73118397593498230000e-001) (2, 7.60635554790496830000e-001) (3, 3.42900782823562620000e-001) (4, 4.56525117158889770000e-001) (5, -5.32668054103851320000e-001) (6, -2.18853116035461430000e-001) (7, 9.15305018424987790000e-001) (8, 3.78606498241424560000e-001) (9, -5.63600718975067140000e-001) (10, 8.87772083282470700000e-001) (11, 3.35273861885070800000e-001) 
