FANN_FLO_2.1
num_layers=3
learning_rate=0.700000
connection_rate=1.000000
network_type=0
learning_momentum=0.000000
training_algorithm=2
train_error_function=1
train_stop_function=0
cascade_output_change_fraction=0.010000
quickprop_decay=-0.000100
quickprop_mu=1.750000
rprop_increase_factor=1.200000
rprop_decrease_factor=0.500000
rprop_delta_min=0.000000
rprop_delta_max=50.000000
rprop_delta_zero=0.100000
cascade_output_stagnation_epochs=12
cascade_candidate_change_fraction=0.010000
cascade_candidate_stagnation_epochs=12
cascade_max_out_epochs=150
cascade_min_out_epochs=50
cascade_max_cand_epochs=150
cascade_min_cand_epochs=50
cascade_num_candidate_groups=2
bit_fail_limit=3.49999994039535520000e-001
cascade_candidate_limit=1.00000000000000000000e+003
cascade_weight_multiplier=4.00000005960464480000e-001
cascade_activation_functions_count=10
cascade_activation_functions=3 5 7 8 10 11 14 15 16 17 
cascade_activation_steepnesses_count=4
cascade_activation_steepnesses=2.50000000000000000000e-001 5.00000000000000000000e-001 7.50000000000000000000e-001 1.00000000000000000000e+000 
layer_sizes=4 8 2 
scale_included=0
neurons (num_inputs, activation_function, activation_steepness)=(0, 0, 0.00000000000000000000e+000) (0, 0, 0.00000000000000000000e+000) (0, 0, 0.00000000000000000000e+000) (0, 0, 0.00000000000000000000e+000) (4, 5, 5.00000000000000000000e-001) (4, 5, 5.00000000000000000000e-001) (4, 5, 5.00000000000000000000e-001) (4, 5, 5.00000000000000000000e-001) (4, 5, 5.00000000000000000000e-001) (4, 5, 5.00000000000000000000e-001) (4, 5, 5.00000000000000000000e-001) (0, 5, 0.00000000000000000000e+000) (8, 5, 5.00000000000000000000e-001) (0, 5, 0.00000000000000000000e+000) 
connections (connected_to_neuron, weight)=(0, -8.60801696777343750000e-001) (1, -2.01284825801849370000e-001) (2, -5.03838062286376950000e-001) (3, -3.11969369649887080000e-001) (0, 3.68753820657730100000e-001) (1, -1.78172302246093750000e+000) (2, -2.48816919326782230000e+000) (3, -2.56339997053146360000e-001) (0, -6.33546710014343260000e-001) (1, -7.07061812281608580000e-002) (2, 6.76670074462890630000e-002) (3, -4.19816225767135620000e-001) (0, -8.11924755573272710000e-001) (1, -9.34845358133316040000e-002) (2, -4.61229443550109860000e-001) (3, -4.20103102922439580000e-001) (0, -8.39494347572326660000e-001) (1, -8.29010531306266780000e-002) (2, -4.04332429170608520000e-001) (3, -3.79150718450546260000e-001) (0, -1.25083863735198970000e+000) (1, 4.74533653259277340000e+000) (2, 4.77951622009277340000e+000) (3, 4.24633204936981200000e-001) (0, -6.96516692638397220000e-001) (1, -1.40267983078956600000e-001) (2, 1.03323742747306820000e-001) (3, -2.67999619245529170000e-001) (4, -2.22111642360687260000e-001) (5, 6.20714724063873290000e-001) (6, -1.37154608964920040000e-001) (7, -2.33140707015991210000e-001) (8, -2.93096780776977540000e-001) (9, -6.88396394252777100000e-001) (10, -1.02724671363830570000e-001) (11, 7.06253767013549800000e-001) 
