FANN_FLO_2.1
num_layers=3
learning_rate=0.700000
connection_rate=1.000000
network_type=0
learning_momentum=0.000000
training_algorithm=2
train_error_function=1
train_stop_function=0
cascade_output_change_fraction=0.010000
quickprop_decay=-0.000100
quickprop_mu=1.750000
rprop_increase_factor=1.200000
rprop_decrease_factor=0.500000
rprop_delta_min=0.000000
rprop_delta_max=50.000000
rprop_delta_zero=0.100000
cascade_output_stagnation_epochs=12
cascade_candidate_change_fraction=0.010000
cascade_candidate_stagnation_epochs=12
cascade_max_out_epochs=150
cascade_min_out_epochs=50
cascade_max_cand_epochs=150
cascade_min_cand_epochs=50
cascade_num_candidate_groups=2
bit_fail_limit=3.49999994039535520000e-001
cascade_candidate_limit=1.00000000000000000000e+003
cascade_weight_multiplier=4.00000005960464480000e-001
cascade_activation_functions_count=10
cascade_activation_functions=3 5 7 8 10 11 14 15 16 17 
cascade_activation_steepnesses_count=4
cascade_activation_steepnesses=2.50000000000000000000e-001 5.00000000000000000000e-001 7.50000000000000000000e-001 1.00000000000000000000e+000 
layer_sizes=4 8 2 
scale_included=0
neurons (num_inputs, activation_function, activation_steepness)=(0, 0, 0.00000000000000000000e+000) (0, 0, 0.00000000000000000000e+000) (0, 0, 0.00000000000000000000e+000) (0, 0, 0.00000000000000000000e+000) (4, 5, 5.00000000000000000000e-001) (4, 5, 5.00000000000000000000e-001) (4, 5, 5.00000000000000000000e-001) (4, 5, 5.00000000000000000000e-001) (4, 5, 5.00000000000000000000e-001) (4, 5, 5.00000000000000000000e-001) (4, 5, 5.00000000000000000000e-001) (0, 5, 0.00000000000000000000e+000) (8, 5, 5.00000000000000000000e-001) (0, 5, 0.00000000000000000000e+000) 
connections (connected_to_neuron, weight)=(0, 6.78984940052032470000e-001) (1, 7.70401656627655030000e-001) (2, 1.37125968933105470000e+000) (3, -1.18970625102519990000e-001) (0, -3.15310382843017580000e+000) (1, 2.66396784782409670000e+000) (2, 6.20018243789672850000e-001) (3, 2.62923210859298710000e-001) (0, -1.33012628555297850000e+000) (1, 9.02660012245178220000e-001) (2, 9.52597633004188540000e-002) (3, 1.57834932208061220000e-001) (0, -1.83942031860351560000e+000) (1, 1.07357692718505860000e+000) (2, 3.52472901344299320000e-001) (3, 1.86228483915328980000e-001) (0, 6.25811874866485600000e-001) (1, 7.35700964927673340000e-001) (2, -1.70767939090728760000e+000) (3, 2.82182008028030400000e-001) (0, 1.82553708553314210000e+000) (1, -6.26977777481079100000e+000) (2, 6.63568401336669920000e+000) (3, 1.10947954654693600000e+000) (0, -8.53877961635589600000e-001) (1, 2.14800167083740230000e+000) (2, 5.32295703887939450000e+000) (3, -1.75857841968536380000e-001) (4, 4.94083672761917110000e-001) (5, -5.30034422874450680000e-001) (6, -1.70089259743690490000e-001) (7, -5.21396458148956300000e-001) (8, -4.06388938426971440000e-002) (9, -5.89860200881958010000e-001) (10, 4.03598099946975710000e-001) (11, 2.34384730458259580000e-001) 
